Language model created by QuickLM on Mon Mar 30 19:10:06 EDT 2015
Copyright (c) 1996-2010 Carnegie Mellon University and Alexander I. Rudnicky

The model is in standard ARPA format, designed by Doug Paul while he was at MITRE.

The code that was used to produce this language model is available in Open Source.
Please visit http://www.speech.cs.cmu.edu/tools/ for more information

The (fixed) discount mass is 0.5. The backoffs are computed using the ratio method.
This model based on a corpus of 48 sentences and 50 words

\data\
ngram 1=50
ngram 2=96
ngram 3=48

\1-grams:
-0.7782 </s> -0.3010
-0.7782 <s> -0.2218
-2.4594 ALPHA -0.2218
-2.4594 BACK -0.2218
-2.4594 BRAVO -0.2218
-2.4594 CALL -0.2218
-2.4594 CHARLIE -0.2218
-2.4594 DELTA -0.2218
-2.4594 ECHO -0.2218
-2.4594 EIGHT -0.2218
-2.4594 END -0.2218
-2.4594 EXAMPLE -0.2218
-2.4594 FIVE -0.2218
-2.4594 FOUR -0.2218
-2.4594 FOXTROT -0.2218
-2.4594 GOLF -0.2218
-2.4594 HOTEL -0.2218
-2.4594 INDIA -0.2218
-2.4594 JULIETT -0.2218
-2.4594 KILO -0.2218
-2.4594 LIMA -0.2218
-2.4594 LIST -0.2218
-2.4594 MAKE -0.2218
-2.4594 MAP -0.2218
-2.4594 MIKE -0.2218
-2.4594 NINE -0.2218
-2.4594 NOVEMBER -0.2218
-2.4594 ONE -0.2218
-2.4594 OPTIONS -0.2218
-2.4594 OSCAR -0.2218
-2.4594 PAPA -0.2218
-2.4594 PEERS -0.2218
-2.4594 QUEBEC -0.2218
-2.4594 ROMEO -0.2218
-2.4594 SET -0.2218
-2.4594 SEVEN -0.2218
-2.4594 SIERRA -0.2218
-2.4594 SIX -0.2218
-2.4594 TANGO -0.2218
-2.4594 TARGET -0.2218
-2.4594 THREE -0.2218
-2.4594 TOGGLE -0.2218
-2.4594 TWO -0.2218
-2.4594 UNIFORM -0.2218
-2.4594 VICTOR -0.2218
-2.4594 WHISKEY -0.2218
-2.4594 XRAY -0.2218
-2.4594 YANKEE -0.2218
-2.4594 ZERO -0.2218
-2.4594 ZULU -0.2218

\2-grams:
-1.9823 <s> ALPHA 0.0000
-1.9823 <s> BACK 0.0000
-1.9823 <s> BRAVO 0.0000
-1.9823 <s> CALL 0.0000
-1.9823 <s> CHARLIE 0.0000
-1.9823 <s> DELTA 0.0000
-1.9823 <s> ECHO 0.0000
-1.9823 <s> EIGHT 0.0000
-1.9823 <s> END 0.0000
-1.9823 <s> EXAMPLE 0.0000
-1.9823 <s> FIVE 0.0000
-1.9823 <s> FOUR 0.0000
-1.9823 <s> FOXTROT 0.0000
-1.9823 <s> GOLF 0.0000
-1.9823 <s> HOTEL 0.0000
-1.9823 <s> INDIA 0.0000
-1.9823 <s> JULIETT 0.0000
-1.9823 <s> KILO 0.0000
-1.9823 <s> LIMA 0.0000
-1.9823 <s> LIST 0.0000
-1.9823 <s> MAKE 0.0000
-1.9823 <s> MAP 0.0000
-1.9823 <s> MIKE 0.0000
-1.9823 <s> NINE 0.0000
-1.9823 <s> NOVEMBER 0.0000
-1.9823 <s> ONE 0.0000
-1.9823 <s> OPTIONS 0.0000
-1.9823 <s> OSCAR 0.0000
-1.9823 <s> PAPA 0.0000
-1.9823 <s> PEERS 0.0000
-1.9823 <s> QUEBEC 0.0000
-1.9823 <s> ROMEO 0.0000
-1.9823 <s> SET 0.0000
-1.9823 <s> SEVEN 0.0000
-1.9823 <s> SIERRA 0.0000
-1.9823 <s> SIX 0.0000
-1.9823 <s> TANGO 0.0000
-1.9823 <s> TARGET 0.0000
-1.9823 <s> THREE 0.0000
-1.9823 <s> TOGGLE 0.0000
-1.9823 <s> TWO 0.0000
-1.9823 <s> UNIFORM 0.0000
-1.9823 <s> VICTOR 0.0000
-1.9823 <s> WHISKEY 0.0000
-1.9823 <s> XRAY 0.0000
-1.9823 <s> YANKEE 0.0000
-1.9823 <s> ZERO 0.0000
-1.9823 <s> ZULU 0.0000
-0.3010 ALPHA </s> -0.3010
-0.3010 BACK </s> -0.3010
-0.3010 BRAVO </s> -0.3010
-0.3010 CALL </s> -0.3010
-0.3010 CHARLIE </s> -0.3010
-0.3010 DELTA </s> -0.3010
-0.3010 ECHO </s> -0.3010
-0.3010 EIGHT </s> -0.3010
-0.3010 END </s> -0.3010
-0.3010 EXAMPLE </s> -0.3010
-0.3010 FIVE </s> -0.3010
-0.3010 FOUR </s> -0.3010
-0.3010 FOXTROT </s> -0.3010
-0.3010 GOLF </s> -0.3010
-0.3010 HOTEL </s> -0.3010
-0.3010 INDIA </s> -0.3010
-0.3010 JULIETT </s> -0.3010
-0.3010 KILO </s> -0.3010
-0.3010 LIMA </s> -0.3010
-0.3010 LIST </s> -0.3010
-0.3010 MAKE </s> -0.3010
-0.3010 MAP </s> -0.3010
-0.3010 MIKE </s> -0.3010
-0.3010 NINE </s> -0.3010
-0.3010 NOVEMBER </s> -0.3010
-0.3010 ONE </s> -0.3010
-0.3010 OPTIONS </s> -0.3010
-0.3010 OSCAR </s> -0.3010
-0.3010 PAPA </s> -0.3010
-0.3010 PEERS </s> -0.3010
-0.3010 QUEBEC </s> -0.3010
-0.3010 ROMEO </s> -0.3010
-0.3010 SET </s> -0.3010
-0.3010 SEVEN </s> -0.3010
-0.3010 SIERRA </s> -0.3010
-0.3010 SIX </s> -0.3010
-0.3010 TANGO </s> -0.3010
-0.3010 TARGET </s> -0.3010
-0.3010 THREE </s> -0.3010
-0.3010 TOGGLE </s> -0.3010
-0.3010 TWO </s> -0.3010
-0.3010 UNIFORM </s> -0.3010
-0.3010 VICTOR </s> -0.3010
-0.3010 WHISKEY </s> -0.3010
-0.3010 XRAY </s> -0.3010
-0.3010 YANKEE </s> -0.3010
-0.3010 ZERO </s> -0.3010
-0.3010 ZULU </s> -0.3010

\3-grams:
-0.3010 <s> ALPHA </s>
-0.3010 <s> BACK </s>
-0.3010 <s> BRAVO </s>
-0.3010 <s> CALL </s>
-0.3010 <s> CHARLIE </s>
-0.3010 <s> DELTA </s>
-0.3010 <s> ECHO </s>
-0.3010 <s> EIGHT </s>
-0.3010 <s> END </s>
-0.3010 <s> EXAMPLE </s>
-0.3010 <s> FIVE </s>
-0.3010 <s> FOUR </s>
-0.3010 <s> FOXTROT </s>
-0.3010 <s> GOLF </s>
-0.3010 <s> HOTEL </s>
-0.3010 <s> INDIA </s>
-0.3010 <s> JULIETT </s>
-0.3010 <s> KILO </s>
-0.3010 <s> LIMA </s>
-0.3010 <s> LIST </s>
-0.3010 <s> MAKE </s>
-0.3010 <s> MAP </s>
-0.3010 <s> MIKE </s>
-0.3010 <s> NINE </s>
-0.3010 <s> NOVEMBER </s>
-0.3010 <s> ONE </s>
-0.3010 <s> OPTIONS </s>
-0.3010 <s> OSCAR </s>
-0.3010 <s> PAPA </s>
-0.3010 <s> PEERS </s>
-0.3010 <s> QUEBEC </s>
-0.3010 <s> ROMEO </s>
-0.3010 <s> SET </s>
-0.3010 <s> SEVEN </s>
-0.3010 <s> SIERRA </s>
-0.3010 <s> SIX </s>
-0.3010 <s> TANGO </s>
-0.3010 <s> TARGET </s>
-0.3010 <s> THREE </s>
-0.3010 <s> TOGGLE </s>
-0.3010 <s> TWO </s>
-0.3010 <s> UNIFORM </s>
-0.3010 <s> VICTOR </s>
-0.3010 <s> WHISKEY </s>
-0.3010 <s> XRAY </s>
-0.3010 <s> YANKEE </s>
-0.3010 <s> ZERO </s>
-0.3010 <s> ZULU </s>

\end\
