Language model created by QuickLM on Wed Mar 11 21:31:05 EDT 2015
Copyright (c) 1996-2010 Carnegie Mellon University and Alexander I. Rudnicky

The model is in standard ARPA format, designed by Doug Paul while he was at MITRE.

The code that was used to produce this language model is available in Open Source.
Please visit http://www.speech.cs.cmu.edu/tools/ for more information

The (fixed) discount mass is 0.5. The backoffs are computed using the ratio method.
This model based on a corpus of 27 sentences and 29 words

\data\
ngram 1=29
ngram 2=54
ngram 3=27

\1-grams:
-0.7782 </s> -0.3010
-0.7782 <s> -0.2218
-2.2095 ALPHA -0.2218
-2.2095 BRAVO -0.2218
-2.2095 CALL -0.2218
-2.2095 CHARLIE -0.2218
-2.2095 DELTA -0.2218
-2.2095 ECHO -0.2218
-2.2095 FOXTROT -0.2218
-2.2095 GOLF -0.2218
-2.2095 HOTEL -0.2218
-2.2095 INDIA -0.2218
-2.2095 JULIETT -0.2218
-2.2095 KILO -0.2218
-2.2095 LIMA -0.2218
-2.2095 MIKE -0.2218
-2.2095 NOVEMBER -0.2218
-2.2095 OSCAR -0.2218
-2.2095 PAPA -0.2218
-2.2095 QUEBEC -0.2218
-2.2095 ROMEO -0.2218
-2.2095 SIERRA -0.2218
-2.2095 TANGO -0.2218
-2.2095 UNIFORM -0.2218
-2.2095 VICTOR -0.2218
-2.2095 WHISKEY -0.2218
-2.2095 XRAY -0.2218
-2.2095 YANKEE -0.2218
-2.2095 ZULU -0.2218

\2-grams:
-1.7324 <s> ALPHA 0.0000
-1.7324 <s> BRAVO 0.0000
-1.7324 <s> CALL 0.0000
-1.7324 <s> CHARLIE 0.0000
-1.7324 <s> DELTA 0.0000
-1.7324 <s> ECHO 0.0000
-1.7324 <s> FOXTROT 0.0000
-1.7324 <s> GOLF 0.0000
-1.7324 <s> HOTEL 0.0000
-1.7324 <s> INDIA 0.0000
-1.7324 <s> JULIETT 0.0000
-1.7324 <s> KILO 0.0000
-1.7324 <s> LIMA 0.0000
-1.7324 <s> MIKE 0.0000
-1.7324 <s> NOVEMBER 0.0000
-1.7324 <s> OSCAR 0.0000
-1.7324 <s> PAPA 0.0000
-1.7324 <s> QUEBEC 0.0000
-1.7324 <s> ROMEO 0.0000
-1.7324 <s> SIERRA 0.0000
-1.7324 <s> TANGO 0.0000
-1.7324 <s> UNIFORM 0.0000
-1.7324 <s> VICTOR 0.0000
-1.7324 <s> WHISKEY 0.0000
-1.7324 <s> XRAY 0.0000
-1.7324 <s> YANKEE 0.0000
-1.7324 <s> ZULU 0.0000
-0.3010 ALPHA </s> -0.3010
-0.3010 BRAVO </s> -0.3010
-0.3010 CALL </s> -0.3010
-0.3010 CHARLIE </s> -0.3010
-0.3010 DELTA </s> -0.3010
-0.3010 ECHO </s> -0.3010
-0.3010 FOXTROT </s> -0.3010
-0.3010 GOLF </s> -0.3010
-0.3010 HOTEL </s> -0.3010
-0.3010 INDIA </s> -0.3010
-0.3010 JULIETT </s> -0.3010
-0.3010 KILO </s> -0.3010
-0.3010 LIMA </s> -0.3010
-0.3010 MIKE </s> -0.3010
-0.3010 NOVEMBER </s> -0.3010
-0.3010 OSCAR </s> -0.3010
-0.3010 PAPA </s> -0.3010
-0.3010 QUEBEC </s> -0.3010
-0.3010 ROMEO </s> -0.3010
-0.3010 SIERRA </s> -0.3010
-0.3010 TANGO </s> -0.3010
-0.3010 UNIFORM </s> -0.3010
-0.3010 VICTOR </s> -0.3010
-0.3010 WHISKEY </s> -0.3010
-0.3010 XRAY </s> -0.3010
-0.3010 YANKEE </s> -0.3010
-0.3010 ZULU </s> -0.3010

\3-grams:
-0.3010 <s> ALPHA </s>
-0.3010 <s> BRAVO </s>
-0.3010 <s> CALL </s>
-0.3010 <s> CHARLIE </s>
-0.3010 <s> DELTA </s>
-0.3010 <s> ECHO </s>
-0.3010 <s> FOXTROT </s>
-0.3010 <s> GOLF </s>
-0.3010 <s> HOTEL </s>
-0.3010 <s> INDIA </s>
-0.3010 <s> JULIETT </s>
-0.3010 <s> KILO </s>
-0.3010 <s> LIMA </s>
-0.3010 <s> MIKE </s>
-0.3010 <s> NOVEMBER </s>
-0.3010 <s> OSCAR </s>
-0.3010 <s> PAPA </s>
-0.3010 <s> QUEBEC </s>
-0.3010 <s> ROMEO </s>
-0.3010 <s> SIERRA </s>
-0.3010 <s> TANGO </s>
-0.3010 <s> UNIFORM </s>
-0.3010 <s> VICTOR </s>
-0.3010 <s> WHISKEY </s>
-0.3010 <s> XRAY </s>
-0.3010 <s> YANKEE </s>
-0.3010 <s> ZULU </s>

\end\
