Language model created by QuickLM on Thu Mar 12 15:09:52 EDT 2015
Copyright (c) 1996-2010 Carnegie Mellon University and Alexander I. Rudnicky

The model is in standard ARPA format, designed by Doug Paul while he was at MITRE.

The code that was used to produce this language model is available in Open Source.
Please visit http://www.speech.cs.cmu.edu/tools/ for more information

The (fixed) discount mass is 0.5. The backoffs are computed using the ratio method.
This model based on a corpus of 39 sentences and 41 words

\data\
ngram 1=41
ngram 2=78
ngram 3=39

\1-grams:
-0.7782 </s> -0.3010
-0.7782 <s> -0.2218
-2.3692 ALPHA -0.2218
-2.3692 BACK -0.2218
-2.3692 BRAVO -0.2218
-2.3692 CALL -0.2218
-2.3692 CHARLIE -0.2218
-2.3692 DELTA -0.2218
-2.3692 ECHO -0.2218
-2.3692 EIGHT -0.2218
-2.3692 FIVE -0.2218
-2.3692 FOUR -0.2218
-2.3692 FOXTROT -0.2218
-2.3692 GOLF -0.2218
-2.3692 HOTEL -0.2218
-2.3692 INDIA -0.2218
-2.3692 JULIETT -0.2218
-2.3692 KILO -0.2218
-2.3692 LIMA -0.2218
-2.3692 MIKE -0.2218
-2.3692 NINE -0.2218
-2.3692 NOVEMBER -0.2218
-2.3692 ONE -0.2218
-2.3692 OPTIONS -0.2218
-2.3692 OSCAR -0.2218
-2.3692 PAPA -0.2218
-2.3692 QUEBEC -0.2218
-2.3692 ROMEO -0.2218
-2.3692 SEVEN -0.2218
-2.3692 SIERRA -0.2218
-2.3692 SIX -0.2218
-2.3692 TANGO -0.2218
-2.3692 THREE -0.2218
-2.3692 TWO -0.2218
-2.3692 UNIFORM -0.2218
-2.3692 VICTOR -0.2218
-2.3692 WHISKEY -0.2218
-2.3692 XRAY -0.2218
-2.3692 YANKEE -0.2218
-2.3692 ZERO -0.2218
-2.3692 ZULU -0.2218

\2-grams:
-1.8921 <s> ALPHA 0.0000
-1.8921 <s> BACK 0.0000
-1.8921 <s> BRAVO 0.0000
-1.8921 <s> CALL 0.0000
-1.8921 <s> CHARLIE 0.0000
-1.8921 <s> DELTA 0.0000
-1.8921 <s> ECHO 0.0000
-1.8921 <s> EIGHT 0.0000
-1.8921 <s> FIVE 0.0000
-1.8921 <s> FOUR 0.0000
-1.8921 <s> FOXTROT 0.0000
-1.8921 <s> GOLF 0.0000
-1.8921 <s> HOTEL 0.0000
-1.8921 <s> INDIA 0.0000
-1.8921 <s> JULIETT 0.0000
-1.8921 <s> KILO 0.0000
-1.8921 <s> LIMA 0.0000
-1.8921 <s> MIKE 0.0000
-1.8921 <s> NINE 0.0000
-1.8921 <s> NOVEMBER 0.0000
-1.8921 <s> ONE 0.0000
-1.8921 <s> OPTIONS 0.0000
-1.8921 <s> OSCAR 0.0000
-1.8921 <s> PAPA 0.0000
-1.8921 <s> QUEBEC 0.0000
-1.8921 <s> ROMEO 0.0000
-1.8921 <s> SEVEN 0.0000
-1.8921 <s> SIERRA 0.0000
-1.8921 <s> SIX 0.0000
-1.8921 <s> TANGO 0.0000
-1.8921 <s> THREE 0.0000
-1.8921 <s> TWO 0.0000
-1.8921 <s> UNIFORM 0.0000
-1.8921 <s> VICTOR 0.0000
-1.8921 <s> WHISKEY 0.0000
-1.8921 <s> XRAY 0.0000
-1.8921 <s> YANKEE 0.0000
-1.8921 <s> ZERO 0.0000
-1.8921 <s> ZULU 0.0000
-0.3010 ALPHA </s> -0.3010
-0.3010 BACK </s> -0.3010
-0.3010 BRAVO </s> -0.3010
-0.3010 CALL </s> -0.3010
-0.3010 CHARLIE </s> -0.3010
-0.3010 DELTA </s> -0.3010
-0.3010 ECHO </s> -0.3010
-0.3010 EIGHT </s> -0.3010
-0.3010 FIVE </s> -0.3010
-0.3010 FOUR </s> -0.3010
-0.3010 FOXTROT </s> -0.3010
-0.3010 GOLF </s> -0.3010
-0.3010 HOTEL </s> -0.3010
-0.3010 INDIA </s> -0.3010
-0.3010 JULIETT </s> -0.3010
-0.3010 KILO </s> -0.3010
-0.3010 LIMA </s> -0.3010
-0.3010 MIKE </s> -0.3010
-0.3010 NINE </s> -0.3010
-0.3010 NOVEMBER </s> -0.3010
-0.3010 ONE </s> -0.3010
-0.3010 OPTIONS </s> -0.3010
-0.3010 OSCAR </s> -0.3010
-0.3010 PAPA </s> -0.3010
-0.3010 QUEBEC </s> -0.3010
-0.3010 ROMEO </s> -0.3010
-0.3010 SEVEN </s> -0.3010
-0.3010 SIERRA </s> -0.3010
-0.3010 SIX </s> -0.3010
-0.3010 TANGO </s> -0.3010
-0.3010 THREE </s> -0.3010
-0.3010 TWO </s> -0.3010
-0.3010 UNIFORM </s> -0.3010
-0.3010 VICTOR </s> -0.3010
-0.3010 WHISKEY </s> -0.3010
-0.3010 XRAY </s> -0.3010
-0.3010 YANKEE </s> -0.3010
-0.3010 ZERO </s> -0.3010
-0.3010 ZULU </s> -0.3010

\3-grams:
-0.3010 <s> ALPHA </s>
-0.3010 <s> BACK </s>
-0.3010 <s> BRAVO </s>
-0.3010 <s> CALL </s>
-0.3010 <s> CHARLIE </s>
-0.3010 <s> DELTA </s>
-0.3010 <s> ECHO </s>
-0.3010 <s> EIGHT </s>
-0.3010 <s> FIVE </s>
-0.3010 <s> FOUR </s>
-0.3010 <s> FOXTROT </s>
-0.3010 <s> GOLF </s>
-0.3010 <s> HOTEL </s>
-0.3010 <s> INDIA </s>
-0.3010 <s> JULIETT </s>
-0.3010 <s> KILO </s>
-0.3010 <s> LIMA </s>
-0.3010 <s> MIKE </s>
-0.3010 <s> NINE </s>
-0.3010 <s> NOVEMBER </s>
-0.3010 <s> ONE </s>
-0.3010 <s> OPTIONS </s>
-0.3010 <s> OSCAR </s>
-0.3010 <s> PAPA </s>
-0.3010 <s> QUEBEC </s>
-0.3010 <s> ROMEO </s>
-0.3010 <s> SEVEN </s>
-0.3010 <s> SIERRA </s>
-0.3010 <s> SIX </s>
-0.3010 <s> TANGO </s>
-0.3010 <s> THREE </s>
-0.3010 <s> TWO </s>
-0.3010 <s> UNIFORM </s>
-0.3010 <s> VICTOR </s>
-0.3010 <s> WHISKEY </s>
-0.3010 <s> XRAY </s>
-0.3010 <s> YANKEE </s>
-0.3010 <s> ZERO </s>
-0.3010 <s> ZULU </s>

\end\
